<?xml version="1.0"?>
<opencv_storage>
<stage9>
  <maxWeakCount>87</maxWeakCount>
  <stageThreshold>-1.2496322393417358e+00</stageThreshold>
  <weakClassifiers>
    <_>
      <internalNodes>
        0 -1 1060 4.7951087355613708e-02</internalNodes>
      <leafValues>
        -2.2183932363986969e-02 5.8302938938140869e-01</leafValues></_>
    <_>
      <internalNodes>
        0 -1 936 4.8904132097959518e-02</internalNodes>
      <leafValues>
        -2.0770648121833801e-01 3.3125215768814087e-01</leafValues></_>
    <_>
      <internalNodes>
        0 -1 624 3.7224713712930679e-02</internalNodes>
      <leafValues>
        -2.8512880206108093e-01 2.6622435450553894e-01</leafValues></_>
    <_>
      <internalNodes>
        0 -1 1071 4.1356071829795837e-02</internalNodes>
      <leafValues>
        -2.9647240042686462e-01 2.2701370716094971e-01</leafValues></_>
    <_>
      <internalNodes>
        0 -1 528 2.9054347425699234e-02</internalNodes>
      <leafValues>
        -3.6382889747619629e-01 1.2026815861463547e-01</leafValues></_>
    <_>
      <internalNodes>
        0 -1 30 2.6855502277612686e-02</internalNodes>
      <leafValues>
        -3.3244991302490234e-01 1.6712906956672668e-01</leafValues></_>
    <_>
      <internalNodes>
        0 -1 551 7.6403534039855003e-03</internalNodes>
      <leafValues>
        1.9476507604122162e-01 -2.2334150969982147e-01</leafValues></_>
    <_>
      <internalNodes>
        0 -1 792 1.3177898712456226e-02</internalNodes>
      <leafValues>
        -3.4735196828842163e-01 1.1989217996597290e-01</leafValues></_>
    <_>
      <internalNodes>
        0 -1 533 2.5071699172258377e-02</internalNodes>
      <leafValues>
        -2.2497013211250305e-01 1.8644432723522186e-01</leafValues></_>
    <_>
      <internalNodes>
        0 -1 26 4.8205155879259109e-02</internalNodes>
      <leafValues>
        -1.8057285249233246e-01 2.2299580276012421e-01</leafValues></_>
    <_>
      <internalNodes>
        0 -1 192 3.5600773990154266e-02</internalNodes>
      <leafValues>
        -1.4434090256690979e-01 2.6962029933929443e-01</leafValues></_>
    <_>
      <internalNodes>
        0 -1 780 7.8144092112779617e-03</internalNodes>
      <leafValues>
        -6.3747692108154297e-01 5.9527121484279633e-02</leafValues></_>
    <_>
      <internalNodes>
        0 -1 569 3.4930907189846039e-02</internalNodes>
      <leafValues>
        -1.6739019751548767e-01 2.1424171328544617e-01</leafValues></_>
    <_>
      <internalNodes>
        0 -1 1285 2.3190669715404510e-02</internalNodes>
      <leafValues>
        -4.0389779210090637e-01 8.8737837970256805e-02</leafValues></_>
    <_>
      <internalNodes>
        0 -1 86 3.4025222063064575e-02</internalNodes>
      <leafValues>
        -1.6071100533008575e-01 2.1125970780849457e-01</leafValues></_>
    <_>
      <internalNodes>
        0 -1 185 1.4799974858760834e-02</internalNodes>
      <leafValues>
        1.0141853243112564e-01 -3.4809389710426331e-01</leafValues></_>
    <_>
      <internalNodes>
        0 -1 1022 1.9790228456258774e-02</internalNodes>
      <leafValues>
        -2.9195842146873474e-01 1.1668878048658371e-01</leafValues></_>
    <_>
      <internalNodes>
        0 -1 653 4.0412083268165588e-02</internalNodes>
      <leafValues>
        6.9118112325668335e-02 -4.2632848024368286e-01</leafValues></_>
    <_>
      <internalNodes>
        0 -1 436 3.5668842494487762e-02</internalNodes>
      <leafValues>
        -2.0678697526454926e-01 1.4960619807243347e-01</leafValues></_>
    <_>
      <internalNodes>
        0 -1 1056 2.4947807192802429e-02</internalNodes>
      <leafValues>
        1.1007437109947205e-01 -2.7109196782112122e-01</leafValues></_>
    <_>
      <internalNodes>
        0 -1 850 2.6025723665952682e-02</internalNodes>
      <leafValues>
        -1.6525223851203918e-01 1.7516762018203735e-01</leafValues></_>
    <_>
      <internalNodes>
        0 -1 310 1.4166675508022308e-02</internalNodes>
      <leafValues>
        1.4524632692337036e-01 -2.1767848730087280e-01</leafValues></_>
    <_>
      <internalNodes>
        0 -1 1080 6.6234068945050240e-03</internalNodes>
      <leafValues>
        -6.2755674123764038e-01 4.2644351720809937e-02</leafValues></_>
    <_>
      <internalNodes>
        0 -1 716 9.8802689462900162e-03</internalNodes>
      <leafValues>
        1.7650388181209564e-01 -1.5609034895896912e-01</leafValues></_>
    <_>
      <internalNodes>
        0 -1 569 7.4640200473368168e-03</internalNodes>
      <leafValues>
        -6.0218584537506104e-01 4.4015213847160339e-02</leafValues></_>
    <_>
      <internalNodes>
        0 -1 835 1.3907022774219513e-02</internalNodes>
      <leafValues>
        -3.8469827175140381e-01 6.4097724854946136e-02</leafValues></_>
    <_>
      <internalNodes>
        0 -1 720 6.4490181393921375e-03</internalNodes>
      <leafValues>
        1.9956333935260773e-01 -1.4392279088497162e-01</leafValues></_>
    <_>
      <internalNodes>
        0 -1 1060 1.8458291888237000e-02</internalNodes>
      <leafValues>
        -3.6761492490768433e-01 6.3931219279766083e-02</leafValues></_>
    <_>
      <internalNodes>
        0 -1 625 5.2174411714076996e-02</internalNodes>
      <leafValues>
        -1.1518087238073349e-01 2.6550942659378052e-01</leafValues></_>
    <_>
      <internalNodes>
        0 -1 781 5.4090369492769241e-02</internalNodes>
      <leafValues>
        -6.8541601300239563e-02 4.1663828492164612e-01</leafValues></_>
    <_>
      <internalNodes>
        0 -1 671 1.4205590821802616e-02</internalNodes>
      <leafValues>
        -2.8127077221870422e-01 9.6445836126804352e-02</leafValues></_>
    <_>
      <internalNodes>
        0 -1 456 3.4912969917058945e-02</internalNodes>
      <leafValues>
        8.4048502147197723e-02 -3.0073705315589905e-01</leafValues></_>
    <_>
      <internalNodes>
        0 -1 961 6.8298608064651489e-02</internalNodes>
      <leafValues>
        -9.2504315078258514e-02 2.9551592469215393e-01</leafValues></_>
    <_>
      <internalNodes>
        0 -1 843 3.5744078457355499e-02</internalNodes>
      <leafValues>
        7.6977647840976715e-02 -3.4962809085845947e-01</leafValues></_>
    <_>
      <internalNodes>
        0 -1 367 1.7183583229780197e-02</internalNodes>
      <leafValues>
        1.1183483898639679e-01 -2.2324395179748535e-01</leafValues></_>
    <_>
      <internalNodes>
        0 -1 751 5.3271282464265823e-02</internalNodes>
      <leafValues>
        6.6581621766090393e-02 -3.8800597190856934e-01</leafValues></_>
    <_>
      <internalNodes>
        0 -1 602 4.9828097224235535e-02</internalNodes>
      <leafValues>
        -7.7148497104644775e-02 2.8816452622413635e-01</leafValues></_>
    <_>
      <internalNodes>
        0 -1 1070 2.6429183781147003e-02</internalNodes>
      <leafValues>
        1.3312858343124390e-01 -2.0812976360321045e-01</leafValues></_>
    <_>
      <internalNodes>
        0 -1 416 2.6665488258004189e-02</internalNodes>
      <leafValues>
        -1.4891573786735535e-01 1.5193095803260803e-01</leafValues></_>
    <_>
      <internalNodes>
        0 -1 425 5.2201762795448303e-02</internalNodes>
      <leafValues>
        3.7261247634887695e-02 -5.9300583600997925e-01</leafValues></_>
    <_>
      <internalNodes>
        0 -1 1071 1.2695651501417160e-02</internalNodes>
      <leafValues>
        -5.1594835519790649e-01 3.3057898283004761e-02</leafValues></_>
    <_>
      <internalNodes>
        0 -1 624 1.5861302614212036e-02</internalNodes>
      <leafValues>
        -2.9708942770957947e-01 6.1365369707345963e-02</leafValues></_>
    <_>
      <internalNodes>
        0 -1 1054 2.7410281822085381e-02</internalNodes>
      <leafValues>
        6.5961003303527832e-02 -3.0983829498291016e-01</leafValues></_>
    <_>
      <internalNodes>
        0 -1 857 5.8223884552717209e-02</internalNodes>
      <leafValues>
        3.4020420163869858e-02 -5.2859759330749512e-01</leafValues></_>
    <_>
      <internalNodes>
        0 -1 718 1.2641819193959236e-02</internalNodes>
      <leafValues>
        1.6199037432670593e-01 -1.2866212427616119e-01</leafValues></_>
    <_>
      <internalNodes>
        0 -1 678 3.8913771510124207e-02</internalNodes>
      <leafValues>
        5.0275329500436783e-02 -3.7507855892181396e-01</leafValues></_>
    <_>
      <internalNodes>
        0 -1 164 5.4492004215717316e-02</internalNodes>
      <leafValues>
        -4.3137773871421814e-02 4.9749991297721863e-01</leafValues></_>
    <_>
      <internalNodes>
        0 -1 524 1.1518556624650955e-02</internalNodes>
      <leafValues>
        1.4722172915935516e-01 -1.3745215535163879e-01</leafValues></_>
    <_>
      <internalNodes>
        0 -1 498 3.2688319683074951e-02</internalNodes>
      <leafValues>
        -1.0265919566154480e-01 2.0899927616119385e-01</leafValues></_>
    <_>
      <internalNodes>
        0 -1 782 2.1329065784811974e-02</internalNodes>
      <leafValues>
        -1.9424392282962799e-01 9.9221155047416687e-02</leafValues></_>
    <_>
      <internalNodes>
        0 -1 1180 3.4787576645612717e-02</internalNodes>
      <leafValues>
        7.4120461940765381e-02 -2.6595121622085571e-01</leafValues></_>
    <_>
      <internalNodes>
        0 -1 532 9.7224935889244080e-02</internalNodes>
      <leafValues>
        -4.0221635252237320e-02 5.4742169380187988e-01</leafValues></_>
    <_>
      <internalNodes>
        0 -1 0 4.7586925327777863e-02</internalNodes>
      <leafValues>
        -1.0058964788913727e-01 1.8855136632919312e-01</leafValues></_>
    <_>
      <internalNodes>
        0 -1 665 2.5284379720687866e-02</internalNodes>
      <leafValues>
        1.4620064198970795e-01 -1.2873703241348267e-01</leafValues></_>
    <_>
      <internalNodes>
        0 -1 788 3.2003268599510193e-02</internalNodes>
      <leafValues>
        7.2943821549415588e-02 -3.1105396151542664e-01</leafValues></_>
    <_>
      <internalNodes>
        0 -1 608 1.6440948471426964e-02</internalNodes>
      <leafValues>
        -2.3287376761436462e-01 8.6229309439659119e-02</leafValues></_>
    <_>
      <internalNodes>
        0 -1 1278 4.0075495839118958e-02</internalNodes>
      <leafValues>
        4.6155523508787155e-02 -3.7598240375518799e-01</leafValues></_>
    <_>
      <internalNodes>
        0 -1 455 2.4746967479586601e-02</internalNodes>
      <leafValues>
        8.0026015639305115e-02 -2.4595867097377777e-01</leafValues></_>
    <_>
      <internalNodes>
        0 -1 262 6.1804622411727905e-02</internalNodes>
      <leafValues>
        3.2419566065073013e-02 -5.9410011768341064e-01</leafValues></_>
    <_>
      <internalNodes>
        0 -1 921 1.2771151959896088e-03</internalNodes>
      <leafValues>
        -4.9837562441825867e-01 3.6175295710563660e-02</leafValues></_>
    <_>
      <internalNodes>
        0 -1 220 2.3554801940917969e-02</internalNodes>
      <leafValues>
        8.9467234909534454e-02 -2.2570575773715973e-01</leafValues></_>
    <_>
      <internalNodes>
        0 -1 298 9.7271641716361046e-03</internalNodes>
      <leafValues>
        -4.1993430256843567e-01 4.2562894523143768e-02</leafValues></_>
    <_>
      <internalNodes>
        0 -1 528 9.3886412680149078e-02</internalNodes>
      <leafValues>
        -5.8954268693923950e-02 3.8092410564422607e-01</leafValues></_>
    <_>
      <internalNodes>
        0 -1 1284 7.7892132103443146e-02</internalNodes>
      <leafValues>
        3.2620076090097427e-02 -6.0888689756393433e-01</leafValues></_>
    <_>
      <internalNodes>
        0 -1 91 2.4137724190950394e-02</internalNodes>
      <leafValues>
        6.5281607210636139e-02 -2.5732836127281189e-01</leafValues></_>
    <_>
      <internalNodes>
        0 -1 179 2.3352012038230896e-02</internalNodes>
      <leafValues>
        1.4710734784603119e-01 -1.3205505907535553e-01</leafValues></_>
    <_>
      <internalNodes>
        0 -1 490 6.6339358687400818e-02</internalNodes>
      <leafValues>
        2.5756193324923515e-02 -7.5591439008712769e-01</leafValues></_>
    <_>
      <internalNodes>
        0 -1 728 4.3206252157688141e-03</internalNodes>
      <leafValues>
        2.4711474776268005e-01 -8.3796761929988861e-02</leafValues></_>
    <_>
      <internalNodes>
        0 -1 675 8.2122087478637695e-02</internalNodes>
      <leafValues>
        -5.4663009941577911e-02 3.6369004845619202e-01</leafValues></_>
    <_>
      <internalNodes>
        0 -1 969 7.4649848975241184e-03</internalNodes>
      <leafValues>
        -6.8037319183349609e-01 3.0450547114014626e-02</leafValues></_>
    <_>
      <internalNodes>
        0 -1 648 5.0136171281337738e-02</internalNodes>
      <leafValues>
        -6.3859365880489349e-02 2.9291376471519470e-01</leafValues></_>
    <_>
      <internalNodes>
        0 -1 802 2.0731312688440084e-03</internalNodes>
      <leafValues>
        -5.2688521146774292e-01 3.5229116678237915e-02</leafValues></_>
    <_>
      <internalNodes>
        0 -1 1216 8.1132575869560242e-03</internalNodes>
      <leafValues>
        -6.2650936841964722e-01 2.3269917815923691e-02</leafValues></_>
    <_>
      <internalNodes>
        0 -1 471 8.3587076514959335e-03</internalNodes>
      <leafValues>
        -3.9473810791969299e-01 3.6904938519001007e-02</leafValues></_>
    <_>
      <internalNodes>
        0 -1 767 1.3204079121351242e-02</internalNodes>
      <leafValues>
        1.0474278032779694e-01 -1.6964390873908997e-01</leafValues></_>
    <_>
      <internalNodes>
        0 -1 241 2.1553847938776016e-02</internalNodes>
      <leafValues>
        -2.0154125988483429e-01 8.4846943616867065e-02</leafValues></_>
    <_>
      <internalNodes>
        0 -1 906 3.3232819288969040e-02</internalNodes>
      <leafValues>
        5.3153801709413528e-02 -3.2699683308601379e-01</leafValues></_>
    <_>
      <internalNodes>
        0 -1 443 4.9315840005874634e-03</internalNodes>
      <leafValues>
        -7.5663363933563232e-01 1.9448090344667435e-02</leafValues></_>
    <_>
      <internalNodes>
        0 -1 737 7.8551284968852997e-03</internalNodes>
      <leafValues>
        -2.7314206957817078e-01 5.4422091692686081e-02</leafValues></_>
    <_>
      <internalNodes>
        0 -1 574 3.0521921813488007e-02</internalNodes>
      <leafValues>
        9.8132744431495667e-02 -1.6706784069538116e-01</leafValues></_>
    <_>
      <internalNodes>
        0 -1 1026 1.9651032984256744e-02</internalNodes>
      <leafValues>
        1.3611754775047302e-01 -1.1819018423557281e-01</leafValues></_>
    <_>
      <internalNodes>
        0 -1 822 1.1103570461273193e-02</internalNodes>
      <leafValues>
        1.3852952420711517e-01 -1.2550170719623566e-01</leafValues></_>
    <_>
      <internalNodes>
        0 -1 594 8.6887441575527191e-03</internalNodes>
      <leafValues>
        -4.5495423674583435e-01 3.4758321940898895e-02</leafValues></_>
    <_>
      <internalNodes>
        0 -1 169 1.3143768534064293e-02</internalNodes>
      <leafValues>
        2.0370791852474213e-01 -7.9372569918632507e-02</leafValues></_>
    <_>
      <internalNodes>
        0 -1 370 1.0700663551688194e-02</internalNodes>
      <leafValues>
        1.1296806484460831e-01 -1.3428942859172821e-01</leafValues></_>
    <_>
      <internalNodes>
        0 -1 424 5.8781117200851440e-02</internalNodes>
      <leafValues>
        2.2804243490099907e-02 -6.6957914829254150e-01</leafValues></_>
    <_>
      <internalNodes>
        0 -1 346 3.6174561828374863e-02</internalNodes>
      <leafValues>
        4.4209655374288559e-02 -3.0826064944267273e-01</leafValues></_></weakClassifiers></stage9>
</opencv_storage>
